40 50
the -0.45485 1.0028 -1.4068 -0.016482 0.45986 -0.22446 0.093396 -0.82683 -0.53067 1.211 -0.16513 0.17445 -1.131 -0.61202 -0.024578 -0.16851 0.32011 0.77423 -0.36042 1.4831 -0.23092 0.30105 -0.11992 0.60164 0.69462 -0.30443 -0.41428 0.66738 0.17121 -0.33484 -0.45929 -0.5342 0.53366 -0.37947 -0.37872 -0.2405 -0.44627 0.68611 0.66236 -0.86531 0.86133 -0.6277 -0.56954 -1.2284 -0.15205 1.5891 0.081337 0.18269 -0.59302 0.4383
, -0.4088 -0.10933 -0.099279 -0.8571 -0.15032 -0.4564 -0.78152 -0.059621 0.30255 0.20216 -0.31989 -0.50224 -0.014925 0.020889 1.5062 0.24753 0.3856 -0.17078 0.32596 0.2673 0.15767 0.12554 -0.97145 -0.48559 0.48786 0.28437 -0.062811 -1.3341 0.74413 0.5727 1.0099 -0.45723 0.93806 0.6548 -0.43024 -0.69768 -0.22015 0.346 -0.38864 -0.14951 0.011248 0.81873 0.042615 -0.59424 -0.64614 0.5689 0.70033 0.29032 0.29372 0.82878
. -0.58359 0.41348 -0.70819 0.16894 0.23844 0.78901 -0.5664 0.17757 -0.24444 0.32821 -0.31958 -0.46856 0.52032 0.072727 1.792 -0.78135 -0.63664 0.070102 -0.24709 0.11099 0.18211 1.6099 -1.0814 0.92277 -0.60578 0.79372 0.47691 -1.2794 0.90401 -0.51984 1.2352 -0.14946 0.13892 0.68683 -0.73371 -0.33543 -1.8654 -0.47601 -0.14048 -0.14801 0.55517 1.3567 0.85074 -0.4849 0.34122 -0.056477 0.024663 1.1415 0.742 0.47877
of -0.81126 -1.0172 0.31168 -0.43768 0.33873 1.0345 -0.41553 -0.64698 -0.12163 0.58944 -0.97723 0.099942 -1.2962 0.022671 0.94657 0.20496 0.29705 -0.39487 0.028115 -0.021189 -0.44869 0.42129 0.15681 -0.332 0.17787 0.074233 0.29971 0.14835 1.1041 -0.17272 0.29271 0.72703 0.84715 0.024006 -0.82657 -1.0388 -0.56806 -0.46091 -1.2909 -0.29453 0.66375 -0.6465 0.49902 -0.80478 -0.40293 -0.2922 0.34803 0.21541 0.043492 0.16528
and -0.15602 0.40501 -0.37006 -1.4175 0.12064 -0.19185 -0.25121 -0.8839 -0.02501 0.15074 1.0387 0.038419 0.036411 -0.28987 0.5889 0.61899 0.087019 -0.27566 -0.10529 -0.53607 -0.18141 0.058034 0.55231 -0.3898 -0.3848 -0.47072 0.80059 -0.16661 0.7021 0.87609 0.3534 -0.31416 0.61829 0.80402 -0.92591 -1.002 -0.23109 0.59001 -0.63695 -0.47476 0.16942 1.2935 0.60909 -0.9562 -0.013831 0.39915 0.43667 0.11676 -0.50196 1.3083
in -0.0085728 -0.73119 -1.1088 -0.35855 0.50728 -0.050167 0.75187 0.21768 -0.64685 -0.94706 -1.1877 0.49099 -1.5005 0.46311 1.3702 0.21807 0.21349 -0.36216 -0.75869 -0.67087 0.21847 1.6412 0.29322 0.25452 0.085781 0.46445 0.19636 -0.69399 -0.38431 -0.17189 0.045602 1.4761 0.47845 0.72696 -0.64248 -0.26656 -0.84678 0.12556 -0.78733 -0.4385 0.95419 -0.85904 -0.18092 -0.94497 -0.44746 0.036127 0.65476 0.43974 -0.038052 0.99164
" -0.84892 0.85458 0.46007 -0.19197 1.0031 -0.32805 -0.98796 -0.65496 -0.499 0.11524 -0.14518 -0.97677 -0.059079 0.22854 0.28391 0.39448 -0.57279 -1.332 -1.0121 0.6189 -0.73706 0.09953 -0.88243 -0.039773 0.19195 -0.79964 -0.9912 0.48194 0.14861 0.38933 -0.56409 -0.60074 -0.7021 0.51307 -0.57306 -0.34176 -0.63142 0.35791 -0.87519 0.1279 0.77141 0.0022646 0.21016 0.36393 0.54116 0.10227 1.2625 0.20255 -1.0571 0.52237
a -0.26548 1.2502 -0.76307 0.65515 0.16551 -0.61169 -0.23227 0.066205 -0.75309 0.74139 0.21555 0.18469 -0.67479 -1.3426 0.56746 -0.29484 -0.89085 -1.2721 -0.77193 1.8036 0.72377 1.2076 0.028307 -0.32097 0.85959 -0.49621 -0.11021 0.97578 0.30772 -0.50115 0.32285 0.61102 0.62367 1.3808 -0.40226 1.2999 0.59485 -0.26188 -0.078045 -0.92672 0.30788 -0.97735 -1.0349 -0.99667 0.33462 1.1881 -0.18058 -0.6121 -0.87797 1.4125
to -1.4738 0.55695 0.25799 -0.62159 -0.87068 0.3565 0.11375 -0.82477 0.2872 -0.067808 -0.71113 -0.19035 -0.67534 0.2851 0.83001 0.0039925 1.5335 -0.92175 -0.80648 -0.2434 -1.0872 0.85213 0.73153 0.56423 0.27505 0.64374 -0.24949 -0.20467 -0.34625 1.7179 1.6151 -0.35202 0.17337 -0.17099 0.43807 -0.062176 -1.4112 0.16977 -0.69281 -0.25898 1.6304 0.13287 0.012845 -0.74768 1.5791 -0.025103 -0.70387 -0.41022 -0.59477 -0.74033
was -0.25327 0.77704 -0.99067 0.3434 0.039508 0.31448 -1.8229 0.22941 -0.28002 -0.17865 0.1171 -0.12648 0.5117 -0.098202 0.6863 -0.43418 0.19102 0.78148 -1.1313 0.20644 0.20573 -0.75562 -0.1389 -0.93257 -1.4931 -0.068337 0.81618 -0.020185 1.249 -0.29325 1.0419 -0.38377 0.6922 -0.69629 -0.10264 0.16314 -0.47001 0.54692 -0.59591 0.62871 1.2489 0.71409 -0.69496 -0.58187 -1.0991 -0.51764 0.45426 -1.4507 -0.31501 0.21358
is -0.82881 0.50117 -0.43633 -0.39167 -0.095651 0.6582 -0.78304 0.54762 -0.32105 -0.48728 -0.0079214 -0.16962 -0.10368 0.67122 0.8542 -0.34824 -0.12885 0.59225 -1.1415 0.32274 0.55007 -0.76855 0.36269 -1.1162 -0.76809 -0.57218 0.029423 0.031648 0.87626 0.27444 0.66195 -0.77657 1.5199 0.08051 -0.3069 0.82543 -0.61266 1.1223 -0.3378 0.59776 1.0415 0.76587 -0.24375 -0.5345 -1.608 -0.34395 -0.12021 -1.539 -0.24186 0.16192
for -1.2705 -0.51015 -0.37451 -0.37379 0.44491 0.11845 -0.10711 -0.44104 0.15402 0.07259 -0.56653 -0.091996 0.043171 0.009954 1.5219 0.55036 0.60554 -0.77286 0.0016632 -0.18851 -1.016 0.46909 0.65549 0.7935 0.3728 -0.67054 0.068964 -0.95352 0.58039 -0.36742 -0.16551 0.69779 0.16104 0.83288 -0.75581 0.39033 -1.1543 -0.65271 -1.2351 0.2473 1.4699 -0.60472 -0.68252 -0.95338 -0.09543 0.053474 0.29902 0.46205 0.41475 0.34051
as -0.36412 0.77627 -0.017661 0.13102 -0.69441 0.55232 0.35867 -0.49742 -0.50454 0.34822 -0.75345 0.70669 0.56442 -0.32284 1.5074 0.051417 0.74888 -0.092544 -0.56777 0.50091 -0.27027 0.10292 -0.20338 0.079953 0.2594 -1.2266 -0.13286 0.34458 1.2955 -0.2665 0.84869 -0.33636 -0.017121 0.801 -0.77147 -0.66243 -0.58042 -0.37337 -0.82693 -0.83032 1.0492 -0.12401 0.37337 -1.1092 -0.55989 0.06308 0.98037 0.75757 -0.30618 -0.033192
) -0.66067 -0.062994 0.13212 -0.83104 0.060399 0.2483 -0.30597 0.89008 0.034934 -0.043202 0.40009 -0.010551 -0.011345 0.08795 1.0621 -0.056189 0.22194 -1.0811 -0.98608 0.28441 0.1421 -0.27101 -0.2988 0.55882 -0.016395 0.37944 1.0299 0.44596 0.30879 -0.041335 0.18312 -0.34033 -0.46059 0.03497 -0.69077 -0.36463 -0.57084 -0.041783 0.071104 0.36268 -0.9013 1.4529 0.4357 -0.24083 0.65213 1.4748 0.91827 -0.072282 -0.52346 -0.32247
( -0.96402 0.84627 -0.85886 -1.2548 -0.51568 -1.0466 0.21704 0.099588 -0.23062 -0.51266 -1.6004 -0.8528 0.10756 0.67866 1.5528 0.92814 -0.57379 -0.18857 -0.086787 0.26309 0.025196 0.33424 -1.2696 -0.16151 0.6318 -0.80119 -0.56664 -1.1273 0.82288 0.49091 0.00047987 -0.19227 1.3594 0.47445 -0.23775 0.032153 -0.86402 0.32338 -0.55515 1.4132 0.15653 -0.13204 -0.3374 -0.037572 -0.078078 0.25946 0.69235 0.29306 1.0264 1.2832
on -0.044206 -0.069502 -0.06455 -0.80905 0.66195 -0.064747 0.23822 -0.49257 0.3338 -0.58224 -0.99777 0.10598 -0.18698 -0.039267 1.4654 0.33018 0.84294 -0.44856 -0.31537 -0.54965 -0.72907 1.1381 0.50498 0.37049 1.2647 -0.058214 -0.10786 -0.93761 -0.20025 -0.35267 -0.52916 0.83782 0.55933 0.039262 -1.1116 0.31951 -0.65339 -0.00067776 -0.81479 -0.13408 0.8403 -0.32746 -0.60631 -0.29998 0.24105 0.59305 0.83839 0.54917 -0.42186 0.7884
with -0.2738 0.30316 -0.67429 -1.0767 0.69464 -0.66825 -0.20869 0.010397 0.7393 0.068155 -0.041848 0.99177 0.072258 0.78907 0.57743 -0.50332 0.88391 -0.79371 -0.41513 1.0107 -0.24234 0.67223 0.56533 0.36789 -0.56655 -0.36941 0.37793 -0.45583 0.46692 -0.25272 0.22334 0.0080764 0.84799 0.41159 -1.1542 -0.55726 -1.1337 -0.77283 -0.6409 -0.0038503 1.5001 -0.51317 -0.42908 -0.91634 0.039928 -0.13411 -0.13855 0.043369 0.69542 0.14448
by -1.1548 0.68499 -1.1013 0.21964 0.076301 0.12987 0.19933 -0.05266 -0.14597 0.25182 -1.483 0.52029 -0.0013748 0.37999 1.1731 0.685 1.1199 0.11126 -0.64123 0.27399 -0.40004 0.53739 0.59148 0.29869 -0.53968 -0.81896 0.7175 -0.28577 0.81202 -0.10031 1.2162 0.22371 0.70822 1.4731 -0.86773 -1.0558 -1.1612 -1.1888 -0.7114 0.09923 0.9101 -1.1207 0.32195 -0.09537 -0.45299 0.27126 0.68725 0.95982 0.13061 0.13764
's -0.23393 0.026467 0.61907 -0.61548 -0.066429 -0.42917 -1.1091 0.55399 0.085629 1.644 0.59164 -0.26841 -0.66753 -0.4089 -0.18871 0.55009 -0.055041 -0.37883 -0.59317 -0.72342 -1.0976 0.16351 -0.33929 -0.091649 0.89662 0.5736 -0.039646 1.366 1.17 -0.73223 0.48351 0.79469 1.5917 -0.86549 -1.5135 -0.4424 -0.20107 0.31058 -0.94829 -0.38135 0.53102 0.42069 0.12129 -1.7428 0.42648 1.7565 0.55023 -0.68086 1.0438 0.44426
he -0.3958 0.30466 -0.60485 -0.56167 -0.61807 0.30564 0.10477 -1.4774 -0.18645 -0.38821 -0.036239 1.1829 1.5562 -0.41853 0.2974 -1.4783 0.95094 -1.0125 -0.33244 -0.068662 -0.18958 0.62704 -0.24009 -0.29864 -0.65678 0.4967 0.7028 -0.22669 1.0084 0.59919 -0.13874 0.22206 0.54254 2.523e-05 0.75845 -0.71776 1.1308 -0.23261 0.56731 1.0945 -0.51492 0.58692 0.35528 -0.44534 -0.67861 1.1502 -0.27889 -0.84733 -1.1483 -0.80716
that 0.27335 0.2057 0.16301 0.21955 0.04382 1.418 0.024467 -1.386 0.62819 -1.0188 -0.43837 -0.29056 -0.17596 -0.56088 1.3943 -0.34688 0.2403 -0.54724 -0.10606 1.0937 -1.0087 0.15962 -0.71747 0.79082 0.1701 0.85914 0.24595 -0.681 1.1975 0.52813 0.57957 -0.064662 0.63587 0.79373 -0.13823 0.15041 -0.23298 0.50464 0.56595 -0.067691 0.32588 0.018329 0.46098 -0.43879 -0.1952 2.3968 -0.091621 0.94966 -0.35054 -0.056759
from -0.062853 -0.10522 -0.249 -0.36377 0.24366 0.28006 -0.064778 -0.40785 -0.7763 -0.0023104 -1.4299 0.82513 -0.39606 -0.24957 1.1639 0.97133 0.10757 0.43 -0.67437 0.15523 -0.15477 0.66578 0.50394 0.40698 -0.045801 -0.22683 1.1173 -0.52173 0.56234 -0.15899 -0.31248 0.40909 1.0558 0.093945 -0.9349 -0.38131 -0.38996 -0.16948 -1.094 0.024032 0.76808 -0.64235 -0.35166 -0.37909 0.1671 0.087663 1.358 -0.3681 0.43843 -0.0061751
it -0.48148 0.054791 -0.20171 -0.63787 -0.87007 0.70054 0.068813 0.30636 -0.87433 -0.2858 -0.92185 0.44435 1.0933 -0.94111 0.94265 -1.1011 0.66886 -0.95448 -0.77971 -0.14084 0.12323 -0.16483 0.31692 0.21557 -0.67526 0.18679 -0.19674 0.4906 -0.2831 0.71084 -0.18871 -0.18063 -0.50472 0.10598 -0.32805 0.052079 0.58196 0.96806 1.123 0.3338 -0.051428 0.90212 0.45754 -0.4995 -0.88413 1.385 -0.26844 -0.82622 -1.9222 -0.58023
his -0.51451 0.83751 -0.92224 0.14252 0.73248 -1.1451 -0.69141 -0.57695 -0.33548 1.1792 0.7841 0.44955 -0.24575 -1.5192 -0.91719 -1.004 0.26529 -0.57104 -0.64935 0.79642 -0.71876 1.359 0.8511 -0.18158 1.2393 0.6357 0.009322 0.58821 -0.12756 0.25354 -0.56605 0.5997 0.697 0.095515 -0.42947 -0.17289 -0.30595 -0.33179 -0.12647 -0.36395 1.038 0.15379 -0.49686 -0.5595 -0.34896 1.0798 -0.75745 -0.26846 0.32457 -0.52348
at -0.27479 0.59135 -0.034572 -0.18032 0.082948 0.18069 0.23274 -0.59073 0.039113 -0.77045 -1.3781 0.56416 -1.3852 0.09024 1.375 0.56416 -0.37396 0.34385 -1.4062 -0.13002 -0.87888 1.3175 0.78136 0.48465 0.80583 -1.8016 0.2833 -0.5431 0.35782 -0.59723 0.61541 1.3575 -0.53442 0.33005 -0.079063 0.43245 -1.2993 0.71206 -0.83427 -0.49057 1.2325 -0.47859 -0.33208 -0.87792 0.36057 0.88034 0.62216 -0.044073 -0.13072 0.20337
an -1.1749 1.9942 -0.94625 0.22098 0.50357 -0.60477 -0.36422 -0.47086 -1.1883 0.60519 0.11994 -0.26898 -1.2322 -0.75441 1.0499 0.45781 -0.32399 -1.0166 -1.2138 2.0428 0.97961 -0.048733 0.53208 0.12472 0.30055 -0.74049 -0.47444 0.015093 0.13637 -0.52646 -0.9657 1.5274 2.2691 1.4855 0.64017 1.1291 -0.095151 -1.2155 0.082345 -0.99024 1.5432 1.1448 -0.61705 -0.071058 0.99916 0.040815 -1.6442 -0.050591 -1.0401 0.30973
are -0.51368 -0.17666 -0.30673 -0.06116 -0.015179 1.0763 -0.40315 0.47785 -0.40589 0.39769 -0.2092 0.12521 0.20292 -0.030917 0.96038 0.054986 -0.070141 0.25812 -1.0287 0.87837 0.99421 -0.97747 0.95958 -1.0307 -1.5286 -0.70704 -0.17579 -0.19181 1.037 -0.077485 0.71419 -1.0495 0.88333 0.42399 -1.0177 0.73126 -0.96258 0.60979 -1.1262 1.4263 0.85334 0.51123 -0.48779 -0.83542 -0.86674 -0.36782 0.40979 -1.8432 -0.034492 -0.54078
were -0.32247 0.31357 -1.3729 0.48512 -0.13736 0.46685 -1.1132 -0.052961 0.39529 0.64651 -0.31109 -0.24409 0.12381 -0.52722 0.85184 -0.09331 0.11251 0.19613 -1.0226 0.35724 0.37776 -1.1496 0.45263 -1.3226 -1.619 -0.2905 0.25922 0.1014 0.88579 -0.22402 0.6941 -0.46613 0.79622 -0.21869 -0.27513 0.52351 -0.61934 0.43222 -0.77356 0.76685 0.75772 0.49186 -0.29673 -1.0217 -0.4862 -0.84876 0.88713 -1.543 -0.042408 -0.14591
which -0.58026 0.12676 -0.026496 -0.79005 0.42638 1.143 -0.10315 -1.2072 -0.60381 -0.60103 0.11253 -0.27168 -0.14013 0.35358 1.2525 -0.66928 0.046796 -0.97536 -0.46717 1.227 -0.53424 -0.31473 0.59917 1.3103 -0.17136 0.44123 -0.048594 -1.4885 0.91545 1.0629 0.79131 0.04191 -0.027489 0.60694 -0.23776 -0.2165 0.12227 -1.0526 0.69901 -0.34641 -0.044301 0.91159 0.21979 0.32917 0.30098 1.9606 0.098748 1.3257 -0.7924 -0.5288
<s> -0.97282 -0.23625 -0.65228 0.40685 0.8496 -0.68555 0.17975 -0.83302 0.085499 -0.041593 -0.17847 -0.83381 1.0098 0.20148 -0.75271 -1.1812 -0.25806 -0.31622 -0.24198 -0.31869 -0.30217 0.056583 -0.1525 0.13352 0.97942 0.63513 0.85515 -0.21761 0.33905 -0.1174 0.14234 -1.3955 0.39455 0.29027 0.47863 0.74869 -0.64358 -0.032652 0.37843 1.0185 0.22738 0.090338 1.0879 0.20644 0.46874 -0.50631 1.1349 0.33176 0.64427 1.1183
</s> -1.9215 2.0287 -2.4512 0.35579 -0.85605 1.2169 -0.37142 -0.78116 -1.8455 -0.32974 -1.373 -0.57879 -1.2805 0.32496 2.0505 0.64427 0.44972 0.20978 0.6835 1.2417 0.53258 -0.061285 0.45922 0.14303 -0.95486 -4.0719 -0.51328 0.63226 -1.1763 -2.3866 -0.44865 1.6215 0.97104 3.0274 -0.47941 -0.47765 -2.7566 -1.7072 -0.62988 1.5957 3.2507 0.33649 2.0346 -0.29235 1.4392 4.782 0.20179 -0.64072 0.02996 0.53593
this -1.39 0.29164 -0.50514 0.69308 -0.19518 0.035398 0.025641 0.93951 -0.0013227 -0.45044 0.090614 -0.51211 -0.29547 -1.4063 0.71211 0.011585 0.071039 -1.8191 -0.19968 1.4877 0.80632 -0.10886 -0.3161 0.28994 0.095777 -0.044932 -0.69385 1.2998 -0.22179 0.14913 -0.48945 0.47921 0.31301 0.6108 -0.99988 0.020057 0.75218 0.88211 0.99337 -0.79704 0.051256 0.63023 0.069219 0.39247 -0.16858 2.6474 -0.23857 -0.075041 -0.9669 0.1862
be -0.3238 0.76513 -0.84083 1.245 -0.7111 0.93926 -0.53361 -1.0286 -0.054587 0.11835 0.034801 0.079092 -0.6458 -0.26138 0.99768 -0.43141 -0.33961 -0.50602 -1.0897 0.9777 0.96946 -0.3729 -0.45017 -0.87243 -1.1966 -0.15942 0.55059 0.27408 1.0621 -0.47122 0.22859 -0.89402 0.72903 0.97941 -1.0593 0.77078 -0.371 -0.12564 0.84626 1.7036 0.24987 1.8911 -0.74866 0.31775 -1.3116 -0.8002 -0.4479 -0.92317 0.23341 -0.52228
or -0.9414 0.52759 0.29497 -1.5204 0.34214 0.18877 0.33654 -0.47771 -0.75187 0.27135 0.5553 -0.34221 0.4605 -0.75492 1.0782 1.3998 0.047905 -0.078938 -1.3667 -0.38894 -0.31433 0.030725 0.7616 -0.23034 -0.11371 -0.67187 -0.091449 0.10007 0.028886 0.88947 0.093176 -0.96401 0.48765 0.60098 -1.7256 -0.75712 -0.3282 0.30738 -0.87948 -0.5533 0.78364 0.078309 0.055681 -1.053 -0.24555 0.56795 -0.17668 0.036341 -0.088371 1.0786
also -0.96784 -0.27795 0.32013 -0.50915 -0.78361 0.14055 -0.035724 -1.5663 0.41376 -0.291 0.29 -0.16362 0.52183 0.3029 1.3021 -0.53054 1.499 -0.019877 -0.62386 -0.078791 0.86038 -0.43157 0.16895 -0.19615 -0.72074 0.87836 -0.53314 0.20854 1.206 -0.094656 0.15234 0.057552 0.72835 0.70292 -0.14653 0.80856 -0.50394 -0.36171 -0.54754 0.71559 -0.21472 0.26307 0.2745 0.2488 -0.072662 0.58508 0.78411 -1.3382 -0.9241 -0.27309
has -0.32815 -0.64412 0.24741 -1.1163 0.4312 1.2681 -0.8417 -0.71831 -0.53777 -0.29867 0.51944 -0.52937 0.86409 -0.29174 0.48235 -1.7444 0.42484 0.080484 -0.69566 -0.071063 0.39221 -1.1659 -0.0088003 -0.578 -0.60228 0.20855 -0.13772 -0.58164 1.3504 -0.20209 0.63773 0.84473 0.2862 0.1233 -1.4599 1.015 -0.63154 -0.39085 -0.76608 0.51443 1.1333 1.6299 -1.4759 -0.15013 0.29252 0.077343 -0.92492 -1.6149 -0.22847 -0.46432
had 0.64106 -0.41141 -0.691 -0.28639 0.19247 0.82523 -1.1146 -1.3801 0.35782 -0.15471 0.06776 -0.45791 0.93278 -0.68514 0.92203 -1.8624 0.63644 0.024228 -0.40925 -0.28194 -0.24657 -1.1536 -0.06438 -0.75974 -0.50383 0.51439 -0.081297 -0.035618 1.4875 -0.055597 0.42623 1.3672 0.27018 0.20247 -0.51755 0.59779 -0.86621 -0.16091 -0.39071 0.75332 0.76724 1.3138 -1.4428 -0.3684 0.451 -0.5519 -0.7676 -1.4534 -0.35037 -0.54765
their -0.23414 0.32874 -0.8071 -0.35868 0.77295 -0.83402 0.16964 -1.1287 -0.53374 1.3292 0.49064 0.44662 -0.11213 -1.4739 -0.52063 -0.27593 0.10247 0.10332 -0.04538 0.75719 -0.46639 0.32089 0.27388 0.68706 0.83302 0.54132 0.22757 0.53106 -1.225 0.013226 -0.26734 0.66581 0.82231 0.3381 -1.0187 -0.2991 -0.38745 -0.29836 -0.027045 -0.3845 0.91685 0.90791 -0.23208 -1.1279 -0.19915 1.3179 -0.847 -0.7521 0.078842 -0.78545
one -0.67688 0.32829 0.0022932 -0.78295 0.15528 0.51623 -0.1049 0.82039 -0.49609 0.50098 -1.611 -1.2433 0.41491 -1.7102 1.1469 -0.39237 -1.0101 -1.4533 0.057245 1.484 -0.11792 0.88769 0.83038 0.21623 -0.4902 -1.5672 -0.76988 0.97609 0.30575 0.37524 0.36966 -0.21486 -0.1095 0.8828 -0.35166 1.0465 0.089975 -0.67225 -0.51906 -0.63401 -1.3067 0.19838 -0.41022 0.36114 -0.5453 2.0668 0.44697 -0.58509 1.0436 0.080023
not -1.0065 0.79331 -0.43861 0.42586 -0.85319 1.5466 0.24248 -1.0909 0.29536 0.27682 -0.11608 -0.5331 -0.015196 -0.078729 1.5593 -0.53732 0.74546 -0.58192 -1.416 -0.034369 -0.12471 0.14871 0.21296 -0.85489 -0.54795 0.75469 -0.53197 0.41878 -0.25935 0.81117 0.034013 -0.65075 -0.30878 1.0114 -0.60115 0.91239 -0.91126 0.2647 0.17787 0.64752 0.28523 0.69336 -0.17018 -0.42526 0.4386 0.061523 0.29203 -0.94981 -0.57159 -0.50551